<?xml version="1.0"?>
<opencv_storage>
<stage7>
  <maxWeakCount>5</maxWeakCount>
  <stageThreshold>-1.4370386600494385e+00</stageThreshold>
  <weakClassifiers>
    <_>
      <internalNodes>
        0 -1 107300 8.8692106306552887e-02</internalNodes>
      <leafValues>
        -8.6567163467407227e-01 1.</leafValues></_>
    <_>
      <internalNodes>
        0 -1 137885 4.9230683362111449e-04</internalNodes>
      <leafValues>
        -6.9939619302749634e-01 5.3293758630752563e-01</leafValues></_>
    <_>
      <internalNodes>
        0 -1 55508 1.1586487293243408e-01</internalNodes>
      <leafValues>
        2.6376119256019592e-01 -9.7752088308334351e-01</leafValues></_>
    <_>
      <internalNodes>
        0 -1 140332 1.8611142411828041e-02</internalNodes>
      <leafValues>
        1.3947598636150360e-01 -8.0504804849624634e-01</leafValues></_>
    <_>
      <internalNodes>
        0 -1 91539 -6.5503166988492012e-03</internalNodes>
      <leafValues>
        7.4253970384597778e-01 -2.6625970005989075e-01</leafValues></_></weakClassifiers></stage7>
</opencv_storage>
