<?xml version="1.0"?>
<opencv_storage>
<cascade>
  <stageType>BOOST</stageType>
  <featureType>HAAR</featureType>
  <height>24</height>
  <width>24</width>
  <stageParams>
    <boostType>GAB</boostType>
    <minHitRate>9.9500000476837158e-01</minHitRate>
    <maxFalseAlarm>5.0000000000000000e-01</maxFalseAlarm>
    <weightTrimRate>9.4999998807907104e-01</weightTrimRate>
    <maxDepth>1</maxDepth>
    <maxWeakCount>100</maxWeakCount></stageParams>
  <featureParams>
    <maxCatCount>0</maxCatCount>
    <featSize>1</featSize>
    <mode>BASIC</mode></featureParams>
  <stageNum>10</stageNum>
  <stages>
    <!-- stage 0 -->
    <_>
      <maxWeakCount>5</maxWeakCount>
      <stageThreshold>-1.3595428466796875e+00</stageThreshold>
      <weakClassifiers>
        <_>
          <internalNodes>
            0 -1 38 -7.1603603661060333e-02</internalNodes>
          <leafValues>
            7.9310345649719238e-01 -8.6181139945983887e-01</leafValues></_>
        <_>
          <internalNodes>
            0 -1 10 8.8228300213813782e-02</internalNodes>
          <leafValues>
            -5.2086228132247925e-01 8.2776045799255371e-01</leafValues></_>
        <_>
          <internalNodes>
            0 -1 1 2.2403146140277386e-03</internalNodes>
          <leafValues>
            2.1021157503128052e-01 -1.</leafValues></_>
        <_>
          <internalNodes>
            0 -1 47 -5.1780999638140202e-03</internalNodes>
          <leafValues>
            -9.1103392839431763e-01 1.4042794704437256e-01</leafValues></_>
        <_>
          <internalNodes>
            0 -1 52 7.2887907736003399e-03</internalNodes>
          <leafValues>
            -2.9086789488792419e-01 7.2395312786102295e-01</leafValues></_></weakClassifiers></_>
    <!-- stage 1 -->
    <_>
      <maxWeakCount>6</maxWeakCount>
      <stageThreshold>-1.9402129650115967e+00</stageThreshold>
      <weakClassifiers>
        <_>
          <internalNodes>
            0 -1 31 -9.5221608877182007e-02</internalNodes>
          <leafValues>
            7.7777779102325439e-01 -8.7218046188354492e-01</leafValues></_>
        <_>
          <internalNodes>
            0 -1 36 -3.1452700495719910e-02</internalNodes>
          <leafValues>
            6.7762368917465210e-01 -5.7885688543319702e-01</leafValues></_>
        <_>
          <internalNodes>
            0 -1 32 6.9354777224361897e-04</internalNodes>
          <leafValues>
            -5.2341920137405396e-01 3.5268390178680420e-01</leafValues></_>
        <_>
          <internalNodes>
            0 -1 15 5.7120836572721601e-05</internalNodes>
          <leafValues>
            -5.3939718008041382e-01 3.8919547200202942e-01</leafValues></_>
        <_>
          <internalNodes>
            0 -1 26 3.7630257429555058e-04</internalNodes>
          <leafValues>
            -4.3920701742172241e-01 4.3916353583335876e-01</leafValues></_>
        <_>
          <internalNodes>
            0 -1 5 -8.0421261489391327e-02</internalNodes>
          <leafValues>
            -7.9184806346893311e-01 3.0469766259193420e-01</leafValues></_></weakClassifiers></_>
    <!-- stage 2 -->
    <_>
      <maxWeakCount>6</maxWeakCount>
      <stageThreshold>-1.5081524848937988e+00</stageThreshold>
      <weakClassifiers>
        <_>
          <internalNodes>
            0 -1 34 6.7183978855609894e-02</internalNodes>
          <leafValues>
            -8.7066543102264404e-01 8.7878787517547607e-01</leafValues></_>
        <_>
          <internalNodes>
            0 -1 45 4.0940091013908386e-02</internalNodes>
          <leafValues>
            -6.1294698715209961e-01 8.6669343709945679e-01</leafValues></_>
        <_>
          <internalNodes>
            0 -1 3 1.5568408707622439e-04</internalNodes>
          <leafValues>
            -5.9346950054168701e-01 4.2578011751174927e-01</leafValues></_>
        <_>
          <internalNodes>
            0 -1 0 2.0339044567663223e-05</internalNodes>
          <leafValues>
            4.0908330678939819e-01 -6.5537798404693604e-01</leafValues></_>
        <_>
          <internalNodes>
            0 -1 37 1.2627255637198687e-03</internalNodes>
          <leafValues>
            -5.1649141311645508e-01 4.8214754462242126e-01</leafValues></_>
        <_>
          <internalNodes>
            0 -1 16 1.2163913343101740e-03</internalNodes>
          <leafValues>
            -3.1703728437423706e-01 7.2154921293258667e-01</leafValues></_></weakClassifiers></_>
    <!-- stage 3 -->
    <_>
      <maxWeakCount>5</maxWeakCount>
      <stageThreshold>-1.6460183858871460e+00</stageThreshold>
      <weakClassifiers>
        <_>
          <internalNodes>
            0 -1 31 -6.7663997411727905e-02</internalNodes>
          <leafValues>
            7.0833331346511841e-01 -8.8783270120620728e-01</leafValues></_>
        <_>
          <internalNodes>
            0 -1 40 -9.0622536838054657e-02</internalNodes>
          <leafValues>
            7.7620553970336914e-01 -6.2702351808547974e-01</leafValues></_>
        <_>
          <internalNodes>
            0 -1 2 1.8973711412400007e-03</internalNodes>
          <leafValues>
            3.0435740947723389e-01 -7.9910326004028320e-01</leafValues></_>
        <_>
          <internalNodes>
            0 -1 28 3.4854572732001543e-04</internalNodes>
          <leafValues>
            -5.4312801361083984e-01 4.4134753942489624e-01</leafValues></_>
        <_>
          <internalNodes>
            0 -1 17 5.0082117319107056e-02</internalNodes>
          <leafValues>
            2.3941728472709656e-01 -8.7686717510223389e-01</leafValues></_></weakClassifiers></_>
    <!-- stage 4 -->
    <_>
      <maxWeakCount>6</maxWeakCount>
      <stageThreshold>-1.4450854063034058e+00</stageThreshold>
      <weakClassifiers>
        <_>
          <internalNodes>
            0 -1 49 -3.5538285970687866e-02</internalNodes>
          <leafValues>
            1. -8.7090736627578735e-01</leafValues></_>
        <_>
          <internalNodes>
            0 -1 14 1.5019995626062155e-03</internalNodes>
          <leafValues>
            -6.7507100105285645e-01 7.5264090299606323e-01</leafValues></_>
        <_>
          <internalNodes>
            0 -1 25 4.1181524284183979e-04</internalNodes>
          <leafValues>
            -5.6940960884094238e-01 5.9064203500747681e-01</leafValues></_>
        <_>
          <internalNodes>
            0 -1 13 1.0250513150822371e-04</internalNodes>
          <leafValues>
            -5.7892853021621704e-01 5.4549223184585571e-01</leafValues></_>
        <_>
          <internalNodes>
            0 -1 6 -1.6650778707116842e-03</internalNodes>
          <leafValues>
            -6.3031202554702759e-01 4.8863840103149414e-01</leafValues></_>
        <_>
          <internalNodes>
            0 -1 21 2.4400416295975447e-03</internalNodes>
          <leafValues>
            -3.6382803320884705e-01 8.1976872682571411e-01</leafValues></_></weakClassifiers></_>
    <!-- stage 5 -->
    <_>
      <maxWeakCount>6</maxWeakCount>
      <stageThreshold>-1.8840850591659546e+00</stageThreshold>
      <weakClassifiers>
        <_>
          <internalNodes>
            0 -1 33 5.2506729960441589e-02</internalNodes>
          <leafValues>
            -8.6891382932662964e-01 8.7500000000000000e-01</leafValues></_>
        <_>
          <internalNodes>
            0 -1 51 -5.9576898813247681e-02</internalNodes>
          <leafValues>
            7.3543548583984375e-01 -6.2439382076263428e-01</leafValues></_>
        <_>
          <internalNodes>
            0 -1 7 5.2001261792611331e-05</internalNodes>
          <leafValues>
            -5.2110791206359863e-01 4.1772949695587158e-01</leafValues></_>
        <_>
          <internalNodes>
            0 -1 8 2.8793394449166954e-04</internalNodes>
          <leafValues>
            -4.4903829693794250e-01 6.1100113391876221e-01</leafValues></_>
        <_>
          <internalNodes>
            0 -1 22 1.0318506247131154e-04</internalNodes>
          <leafValues>
            -5.6479769945144653e-01 5.0288486480712891e-01</leafValues></_>
        <_>
          <internalNodes>
            0 -1 12 9.1365277767181396e-02</internalNodes>
          <leafValues>
            2.6904523372650146e-01 -8.6235338449478149e-01</leafValues></_></weakClassifiers></_>
    <!-- stage 6 -->
    <_>
      <maxWeakCount>4</maxWeakCount>
      <stageThreshold>-1.5915132761001587e+00</stageThreshold>
      <weakClassifiers>
        <_>
          <internalNodes>
            0 -1 41 -9.1766014695167542e-02</internalNodes>
          <leafValues>
            7.0731705427169800e-01 -8.7724268436431885e-01</leafValues></_>
        <_>
          <internalNodes>
            0 -1 9 -5.3350823000073433e-03</internalNodes>
          <leafValues>
            5.2227854728698730e-01 -6.7028111219406128e-01</leafValues></_>
        <_>
          <internalNodes>
            0 -1 11 5.7766409590840340e-03</internalNodes>
          <leafValues>
            -4.5367467403411865e-01 5.9943550825119019e-01</leafValues></_>
        <_>
          <internalNodes>
            0 -1 42 1.5237517072819173e-04</internalNodes>
          <leafValues>
            4.2245322465896606e-01 -6.4342498779296875e-01</leafValues></_></weakClassifiers></_>
    <!-- stage 7 -->
    <_>
      <maxWeakCount>5</maxWeakCount>
      <stageThreshold>-1.4370386600494385e+00</stageThreshold>
      <weakClassifiers>
        <_>
          <internalNodes>
            0 -1 30 8.8692106306552887e-02</internalNodes>
          <leafValues>
            -8.6567163467407227e-01 1.</leafValues></_>
        <_>
          <internalNodes>
            0 -1 46 4.9230683362111449e-04</internalNodes>
          <leafValues>
            -6.9939619302749634e-01 5.3293758630752563e-01</leafValues></_>
        <_>
          <internalNodes>
            0 -1 19 1.1586487293243408e-01</internalNodes>
          <leafValues>
            2.6376119256019592e-01 -9.7752088308334351e-01</leafValues></_>
        <_>
          <internalNodes>
            0 -1 48 1.8611142411828041e-02</internalNodes>
          <leafValues>
            1.3947598636150360e-01 -8.0504804849624634e-01</leafValues></_>
        <_>
          <internalNodes>
            0 -1 27 -6.5503166988492012e-03</internalNodes>
          <leafValues>
            7.4253970384597778e-01 -2.6625970005989075e-01</leafValues></_></weakClassifiers></_>
    <!-- stage 8 -->
    <_>
      <maxWeakCount>7</maxWeakCount>
      <stageThreshold>-1.9614461660385132e+00</stageThreshold>
      <weakClassifiers>
        <_>
          <internalNodes>
            0 -1 35 6.0078233480453491e-02</internalNodes>
          <leafValues>
            -8.8501411676406860e-01 1.</leafValues></_>
        <_>
          <internalNodes>
            0 -1 44 2.0251567184459418e-04</internalNodes>
          <leafValues>
            -6.8536281585693359e-01 3.6202439665794373e-01</leafValues></_>
        <_>
          <internalNodes>
            0 -1 50 5.5062700994312763e-04</internalNodes>
          <leafValues>
            -4.1881552338600159e-01 6.1050814390182495e-01</leafValues></_>
        <_>
          <internalNodes>
            0 -1 18 4.6960849431343377e-05</internalNodes>
          <leafValues>
            4.9469050765037537e-01 -5.8412545919418335e-01</leafValues></_>
        <_>
          <internalNodes>
            0 -1 20 9.7841676324605942e-03</internalNodes>
          <leafValues>
            -5.0892180204391479e-01 5.6344342231750488e-01</leafValues></_>
        <_>
          <internalNodes>
            0 -1 24 -1.2253306340426207e-04</internalNodes>
          <leafValues>
            8.0118072032928467e-01 -2.9083088040351868e-01</leafValues></_>
        <_>
          <internalNodes>
            0 -1 4 -1.5370976924896240e-01</internalNodes>
          <leafValues>
            -8.7856739759445190e-01 3.3925923705101013e-01</leafValues></_></weakClassifiers></_>
    <!-- stage 9 -->
    <_>
      <maxWeakCount>5</maxWeakCount>
      <stageThreshold>-1.8401204347610474e+00</stageThreshold>
      <weakClassifiers>
        <_>
          <internalNodes>
            0 -1 50 5.2066228818148375e-04</internalNodes>
          <leafValues>
            -9.2864030599594116e-01 1.</leafValues></_>
        <_>
          <internalNodes>
            0 -1 43 2.5304674636572599e-03</internalNodes>
          <leafValues>
            -8.0357784032821655e-01 1.</leafValues></_>
        <_>
          <internalNodes>
            0 -1 39 5.8845593594014645e-04</internalNodes>
          <leafValues>
            -6.3621234893798828e-01 7.0906096696853638e-01</leafValues></_>
        <_>
          <internalNodes>
            0 -1 23 -2.6401907234685495e-05</internalNodes>
          <leafValues>
            -7.5892305374145508e-01 4.7761934995651245e-01</leafValues></_>
        <_>
          <internalNodes>
            0 -1 29 2.4241742212325335e-03</internalNodes>
          <leafValues>
            6.0830599069595337e-01 -6.4140725135803223e-01</leafValues></_></weakClassifiers></_></stages>
  <features>
    <_>
      <rects>
        <_>
          0 1 10 8 -1.</_>
        <_>
          0 1 5 4 2.</_>
        <_>
          5 5 5 4 2.</_></rects>
      <tilted>0</tilted></_>
    <_>
      <rects>
        <_>
          0 1 6 21 -1.</_>
        <_>
          0 8 6 7 3.</_></rects>
      <tilted>0</tilted></_>
    <_>
      <rects>
        <_>
          0 10 1 12 -1.</_>
        <_>
          0 16 1 6 2.</_></rects>
      <tilted>0</tilted></_>
    <_>
      <rects>
        <_>
          0 10 22 3 -1.</_>
        <_>
          0 11 22 1 3.</_></rects>
      <tilted>0</tilted></_>
    <_>
      <rects>
        <_>
          1 0 18 12 -1.</_>
        <_>
          7 0 6 12 3.</_></rects>
      <tilted>0</tilted></_>
    <_>
      <rects>
        <_>
          1 0 9 14 -1.</_>
        <_>
          1 7 9 7 2.</_></rects>
      <tilted>0</tilted></_>
    <_>
      <rects>
        <_>
          1 7 10 9 -1.</_>
        <_>
          1 10 10 3 3.</_></rects>
      <tilted>0</tilted></_>
    <_>
      <rects>
        <_>
          1 9 13 3 -1.</_>
        <_>
          1 10 13 1 3.</_></rects>
      <tilted>0</tilted></_>
    <_>
      <rects>
        <_>
          1 12 15 3 -1.</_>
        <_>
          1 13 15 1 3.</_></rects>
      <tilted>0</tilted></_>
    <_>
      <rects>
        <_>
          1 16 16 4 -1.</_>
        <_>
          1 18 16 2 2.</_></rects>
      <tilted>0</tilted></_>
    <_>
      <rects>
        <_>
          2 1 12 12 -1.</_>
        <_>
          2 1 6 6 2.</_>
        <_>
          8 7 6 6 2.</_></rects>
      <tilted>0</tilted></_>
    <_>
      <rects>
        <_>
          2 4 18 6 -1.</_>
        <_>
          2 6 18 2 3.</_></rects>
      <tilted>0</tilted></_>
    <_>
      <rects>
        <_>
          2 5 21 12 -1.</_>
        <_>
          2 9 21 4 3.</_></rects>
      <tilted>0</tilted></_>
    <_>
      <rects>
        <_>
          2 13 14 3 -1.</_>
        <_>
          2 14 14 1 3.</_></rects>
      <tilted>0</tilted></_>
    <_>
      <rects>
        <_>
          3 8 18 2 -1.</_>
        <_>
          3 9 18 1 2.</_></rects>
      <tilted>0</tilted></_>
    <_>
      <rects>
        <_>
          3 11 12 3 -1.</_>
        <_>
          3 12 12 1 3.</_></rects>
      <tilted>0</tilted></_>
    <_>
      <rects>
        <_>
          4 1 2 21 -1.</_>
        <_>
          5 1 1 21 2.</_></rects>
      <tilted>0</tilted></_>
    <_>
      <rects>
        <_>
          4 2 5 22 -1.</_>
        <_>
          4 13 5 11 2.</_></rects>
      <tilted>0</tilted></_>
    <_>
      <rects>
        <_>
          4 5 6 2 -1.</_>
        <_>
          4 5 3 1 2.</_>
        <_>
          7 6 3 1 2.</_></rects>
      <tilted>0</tilted></_>
    <_>
      <rects>
        <_>
          4 7 18 12 -1.</_>
        <_>
          4 11 18 4 3.</_></rects>
      <tilted>0</tilted></_>
    <_>
      <rects>
        <_>
          5 2 11 18 -1.</_>
        <_>
          5 11 11 9 2.</_></rects>
      <tilted>0</tilted></_>
    <_>
      <rects>
        <_>
          5 5 15 3 -1.</_>
        <_>
          5 6 15 1 3.</_></rects>
      <tilted>0</tilted></_>
    <_>
      <rects>
        <_>
          5 7 16 3 -1.</_>
        <_>
          5 8 16 1 3.</_></rects>
      <tilted>0</tilted></_>
    <_>
      <rects>
        <_>
          5 11 5 3 -1.</_>
        <_>
          5 12 5 1 3.</_></rects>
      <tilted>0</tilted></_>
    <_>
      <rects>
        <_>
          5 18 13 2 -1.</_>
        <_>
          5 19 13 1 2.</_></rects>
      <tilted>0</tilted></_>
    <_>
      <rects>
        <_>
          6 3 3 14 -1.</_>
        <_>
          7 3 1 14 3.</_></rects>
      <tilted>0</tilted></_>
    <_>
      <rects>
        <_>
          8 2 3 11 -1.</_>
        <_>
          9 2 1 11 3.</_></rects>
      <tilted>0</tilted></_>
    <_>
      <rects>
        <_>
          8 2 10 5 -1.</_>
        <_>
          13 2 5 5 2.</_></rects>
      <tilted>0</tilted></_>
    <_>
      <rects>
        <_>
          8 4 3 18 -1.</_>
        <_>
          9 4 1 18 3.</_></rects>
      <tilted>0</tilted></_>
    <_>
      <rects>
        <_>
          9 5 14 4 -1.</_>
        <_>
          9 5 7 2 2.</_>
        <_>
          16 7 7 2 2.</_></rects>
      <tilted>0</tilted></_>
    <_>
      <rects>
        <_>
          10 0 8 14 -1.</_>
        <_>
          10 7 8 7 2.</_></rects>
      <tilted>0</tilted></_>
    <_>
      <rects>
        <_>
          10 1 14 10 -1.</_>
        <_>
          10 1 7 5 2.</_>
        <_>
          17 6 7 5 2.</_></rects>
      <tilted>0</tilted></_>
    <_>
      <rects>
        <_>
          10 12 10 6 -1.</_>
        <_>
          10 14 10 2 3.</_></rects>
      <tilted>0</tilted></_>
    <_>
      <rects>
        <_>
          11 0 5 10 -1.</_>
        <_>
          11 5 5 5 2.</_></rects>
      <tilted>0</tilted></_>
    <_>
      <rects>
        <_>
          11 0 6 12 -1.</_>
        <_>
          11 6 6 6 2.</_></rects>
      <tilted>0</tilted></_>
    <_>
      <rects>
        <_>
          11 1 6 12 -1.</_>
        <_>
          11 7 6 6 2.</_></rects>
      <tilted>0</tilted></_>
    <_>
      <rects>
        <_>
          11 4 8 8 -1.</_>
        <_>
          11 4 4 4 2.</_>
        <_>
          15 8 4 4 2.</_></rects>
      <tilted>0</tilted></_>
    <_>
      <rects>
        <_>
          11 7 6 15 -1.</_>
        <_>
          13 7 2 15 3.</_></rects>
      <tilted>0</tilted></_>
    <_>
      <rects>
        <_>
          12 2 10 8 -1.</_>
        <_>
          12 2 5 4 2.</_>
        <_>
          17 6 5 4 2.</_></rects>
      <tilted>0</tilted></_>
    <_>
      <rects>
        <_>
          12 4 3 14 -1.</_>
        <_>
          13 4 1 14 3.</_></rects>
      <tilted>0</tilted></_>
    <_>
      <rects>
        <_>
          12 12 12 6 -1.</_>
        <_>
          16 12 4 6 3.</_></rects>
      <tilted>0</tilted></_>
    <_>
      <rects>
        <_>
          13 0 10 14 -1.</_>
        <_>
          13 0 5 7 2.</_>
        <_>
          18 7 5 7 2.</_></rects>
      <tilted>0</tilted></_>
    <_>
      <rects>
        <_>
          13 1 5 3 -1.</_>
        <_>
          13 2 5 1 3.</_></rects>
      <tilted>0</tilted></_>
    <_>
      <rects>
        <_>
          13 5 6 10 -1.</_>
        <_>
          13 5 3 5 2.</_>
        <_>
          16 10 3 5 2.</_></rects>
      <tilted>0</tilted></_>
    <_>
      <rects>
        <_>
          13 16 3 3 -1.</_>
        <_>
          14 16 1 3 3.</_></rects>
      <tilted>0</tilted></_>
    <_>
      <rects>
        <_>
          14 5 2 18 -1.</_>
        <_>
          14 11 2 6 3.</_></rects>
      <tilted>0</tilted></_>
    <_>
      <rects>
        <_>
          14 12 3 9 -1.</_>
        <_>
          15 12 1 9 3.</_></rects>
      <tilted>0</tilted></_>
    <_>
      <rects>
        <_>
          15 0 1 24 -1.</_>
        <_>
          15 12 1 12 2.</_></rects>
      <tilted>0</tilted></_>
    <_>
      <rects>
        <_>
          15 2 8 15 -1.</_>
        <_>
          15 7 8 5 3.</_></rects>
      <tilted>0</tilted></_>
    <_>
      <rects>
        <_>
          15 8 9 2 -1.</_>
        <_>
          18 8 3 2 3.</_></rects>
      <tilted>0</tilted></_>
    <_>
      <rects>
        <_>
          15 10 8 6 -1.</_>
        <_>
          15 12 8 2 3.</_></rects>
      <tilted>0</tilted></_>
    <_>
      <rects>
        <_>
          16 0 5 18 -1.</_>
        <_>
          16 9 5 9 2.</_></rects>
      <tilted>0</tilted></_>
    <_>
      <rects>
        <_>
          16 16 6 2 -1.</_>
        <_>
          18 16 2 2 3.</_></rects>
      <tilted>0</tilted></_></features></cascade>
</opencv_storage>
